digraph Tree {
node [shape=box, fontname="helvetica"] ;
edge [fontname="helvetica"] ;
0 [label="Cost <= 43500.0\ngini = 0.43\nsamples = 32\nvalue = [10, 22]"] ;
1 [label="Family <= 0.5\ngini = 0.308\nsamples = 21\nvalue = [4, 17]"] ;
0 -> 1 [labeldistance=2.5, labelangle=45, headlabel="True"] ;
2 [label="Duration <= 4.5\ngini = 0.408\nsamples = 7\nvalue = [2, 5]"] ;
1 -> 2 ;
3 [label="Cost <= 37500.0\ngini = 0.278\nsamples = 6\nvalue = [1, 5]"] ;
2 -> 3 ;
4 [label="gini = 0.0\nsamples = 3\nvalue = [0, 3]"] ;
3 -> 4 ;
5 [label="gini = 0.444\nsamples = 3\nvalue = [1, 2]"] ;
3 -> 5 ;
6 [label="gini = 0.0\nsamples = 1\nvalue = [1, 0]"] ;
2 -> 6 ;
7 [label="Duration <= 2.5\ngini = 0.245\nsamples = 14\nvalue = [2, 12]"] ;
1 -> 7 ;
8 [label="Cost <= 35000.0\ngini = 0.5\nsamples = 2\nvalue = [1, 1]"] ;
7 -> 8 ;
9 [label="gini = 0.0\nsamples = 1\nvalue = [0, 1]"] ;
8 -> 9 ;
10 [label="gini = 0.0\nsamples = 1\nvalue = [1, 0]"] ;
8 -> 10 ;
11 [label="Cost <= 37500.0\ngini = 0.153\nsamples = 12\nvalue = [1, 11]"] ;
7 -> 11 ;
12 [label="gini = 0.245\nsamples = 7\nvalue = [1, 6]"] ;
11 -> 12 ;
13 [label="gini = 0.0\nsamples = 5\nvalue = [0, 5]"] ;
11 -> 13 ;
14 [label="Duration <= 6.5\ngini = 0.496\nsamples = 11\nvalue = [6, 5]"] ;
0 -> 14 [labeldistance=2.5, labelangle=-45, headlabel="False"] ;
15 [label="Cost <= 57500.0\ngini = 0.48\nsamples = 10\nvalue = [6, 4]"] ;
14 -> 15 ;
16 [label="Family <= 0.5\ngini = 0.408\nsamples = 7\nvalue = [5, 2]"] ;
15 -> 16 ;
17 [label="gini = 0.0\nsamples = 3\nvalue = [3, 0]"] ;
16 -> 17 ;
18 [label="gini = 0.5\nsamples = 4\nvalue = [2, 2]"] ;
16 -> 18 ;
19 [label="Family <= 0.5\ngini = 0.444\nsamples = 3\nvalue = [1, 2]"] ;
15 -> 19 ;
20 [label="gini = 0.0\nsamples = 2\nvalue = [0, 2]"] ;
19 -> 20 ;
21 [label="gini = 0.0\nsamples = 1\nvalue = [1, 0]"] ;
19 -> 21 ;
22 [label="gini = 0.0\nsamples = 1\nvalue = [0, 1]"] ;
14 -> 22 ;
}